<?xml version="1.0"?>
<opencv_storage>
<cascade>
  <stageType>BOOST</stageType>
  <featureType>HAAR</featureType>
  <height>24</height>
  <width>24</width>
  <stageParams>
    <boostType>GAB</boostType>
    <minHitRate>9.9500000476837158e-01</minHitRate>
    <maxFalseAlarm>5.0000000000000000e-01</maxFalseAlarm>
    <weightTrimRate>9.4999998807907104e-01</weightTrimRate>
    <maxDepth>1</maxDepth>
    <maxWeakCount>100</maxWeakCount></stageParams>
  <featureParams>
    <maxCatCount>0</maxCatCount>
    <featSize>1</featSize>
    <mode>BASIC</mode></featureParams>
  <stageNum>10</stageNum>
  <stages>
    <!-- stage 0 -->
    <_>
      <maxWeakCount>3</maxWeakCount>
      <stageThreshold>-1.2760111093521118e+00</stageThreshold>
      <weakClassifiers>
        <_>
          <internalNodes>
            0 -1 28 -4.5396488904953003e-01</internalNodes>
          <leafValues>
            8.7272727489471436e-01 -9.8600000143051147e-01</leafValues></_>
        <_>
          <internalNodes>
            0 -1 29 1.7097109556198120e-01</internalNodes>
          <leafValues>
            -9.6989262104034424e-01 7.2028458118438721e-01</leafValues></_>
        <_>
          <internalNodes>
            0 -1 20 -8.0297872424125671e-02</internalNodes>
          <leafValues>
            6.7988145351409912e-01 -9.4920939207077026e-01</leafValues></_></weakClassifiers></_>
    <!-- stage 1 -->
    <_>
      <maxWeakCount>4</maxWeakCount>
      <stageThreshold>-2.4511251449584961e+00</stageThreshold>
      <weakClassifiers>
        <_>
          <internalNodes>
            0 -1 4 -5.4559040069580078e-01</internalNodes>
          <leafValues>
            5.3968256711959839e-01 -9.7357726097106934e-01</leafValues></_>
        <_>
          <internalNodes>
            0 -1 24 -4.8525792360305786e-01</internalNodes>
          <leafValues>
            4.2585653066635132e-01 -9.2973375320434570e-01</leafValues></_>
        <_>
          <internalNodes>
            0 -1 5 -4.2572700977325439e-01</internalNodes>
          <leafValues>
            4.8882499337196350e-01 -9.0699940919876099e-01</leafValues></_>
        <_>
          <internalNodes>
            0 -1 21 -3.3150994777679443e-01</internalNodes>
          <leafValues>
            3.5918539762496948e-01 -9.5665496587753296e-01</leafValues></_></weakClassifiers></_>
    <!-- stage 2 -->
    <_>
      <maxWeakCount>3</maxWeakCount>
      <stageThreshold>-1.7052338123321533e+00</stageThreshold>
      <weakClassifiers>
        <_>
          <internalNodes>
            0 -1 5 -5.6730782985687256e-01</internalNodes>
          <leafValues>
            1.3924050331115723e-01 -9.5798319578170776e-01</leafValues></_>
        <_>
          <internalNodes>
            0 -1 16 -2.3457307368516922e-02</internalNodes>
          <leafValues>
            4.6046295762062073e-01 -8.8808166980743408e-01</leafValues></_>
        <_>
          <internalNodes>
            0 -1 15 -7.0225223898887634e-02</internalNodes>
          <leafValues>
            3.5894906520843506e-01 -9.5639264583587646e-01</leafValues></_></weakClassifiers></_>
    <!-- stage 3 -->
    <_>
      <maxWeakCount>6</maxWeakCount>
      <stageThreshold>-1.8313052654266357e+00</stageThreshold>
      <weakClassifiers>
        <_>
          <internalNodes>
            0 -1 25 -5.4402315616607666e-01</internalNodes>
          <leafValues>
            1.2345679104328156e-02 -9.4092828035354614e-01</leafValues></_>
        <_>
          <internalNodes>
            0 -1 0 2.1266523748636246e-02</internalNodes>
          <leafValues>
            -6.5927994251251221e-01 9.1680604219436646e-01</leafValues></_>
        <_>
          <internalNodes>
            0 -1 23 9.2318378388881683e-02</internalNodes>
          <leafValues>
            -5.3647726774215698e-01 7.5888323783874512e-01</leafValues></_>
        <_>
          <internalNodes>
            0 -1 22 -7.4819594621658325e-02</internalNodes>
          <leafValues>
            4.9554216861724854e-01 -7.8245157003402710e-01</leafValues></_>
        <_>
          <internalNodes>
            0 -1 27 -8.3701357245445251e-02</internalNodes>
          <leafValues>
            5.5557090044021606e-01 -5.7550221681594849e-01</leafValues></_>
        <_>
          <internalNodes>
            0 -1 40 9.6258297562599182e-03</internalNodes>
          <leafValues>
            -6.3147437572479248e-01 5.3226089477539063e-01</leafValues></_></weakClassifiers></_>
    <!-- stage 4 -->
    <_>
      <maxWeakCount>4</maxWeakCount>
      <stageThreshold>-1.8031274080276489e+00</stageThreshold>
      <weakClassifiers>
        <_>
          <internalNodes>
            0 -1 3 2.2765111178159714e-02</internalNodes>
          <leafValues>
            -8.6168223619461060e-01 8.0000001192092896e-01</leafValues></_>
        <_>
          <internalNodes>
            0 -1 26 -5.5063754320144653e-01</internalNodes>
          <leafValues>
            4.2327824234962463e-01 -8.3032083511352539e-01</leafValues></_>
        <_>
          <internalNodes>
            0 -1 12 -3.0329924076795578e-02</internalNodes>
          <leafValues>
            4.0661057829856873e-01 -7.4603307247161865e-01</leafValues></_>
        <_>
          <internalNodes>
            0 -1 32 6.0947362333536148e-02</internalNodes>
          <leafValues>
            -5.1773494482040405e-01 6.9751918315887451e-01</leafValues></_></weakClassifiers></_>
    <!-- stage 5 -->
    <_>
      <maxWeakCount>5</maxWeakCount>
      <stageThreshold>-1.8810179233551025e+00</stageThreshold>
      <weakClassifiers>
        <_>
          <internalNodes>
            0 -1 30 2.4661544710397720e-02</internalNodes>
          <leafValues>
            -8.5356813669204712e-01 1.</leafValues></_>
        <_>
          <internalNodes>
            0 -1 31 -7.2394609451293945e-02</internalNodes>
          <leafValues>
            2.4949216842651367e-01 -7.7879482507705688e-01</leafValues></_>
        <_>
          <internalNodes>
            0 -1 39 -2.9282167553901672e-02</internalNodes>
          <leafValues>
            2.7450609207153320e-01 -9.1027599573135376e-01</leafValues></_>
        <_>
          <internalNodes>
            0 -1 13 -6.3176423311233521e-02</internalNodes>
          <leafValues>
            3.9004489779472351e-01 -7.5496482849121094e-01</leafValues></_>
        <_>
          <internalNodes>
            0 -1 6 -2.4911936372518539e-02</internalNodes>
          <leafValues>
            -9.2306321859359741e-01 2.7157610654830933e-01</leafValues></_></weakClassifiers></_>
    <!-- stage 6 -->
    <_>
      <maxWeakCount>3</maxWeakCount>
      <stageThreshold>-1.2718400955200195e+00</stageThreshold>
      <weakClassifiers>
        <_>
          <internalNodes>
            0 -1 9 2.2198459133505821e-02</internalNodes>
          <leafValues>
            -8.6033517122268677e-01 9.4444441795349121e-01</leafValues></_>
        <_>
          <internalNodes>
            0 -1 33 -3.2955132424831390e-02</internalNodes>
          <leafValues>
            5.3583860397338867e-01 -6.9427537918090820e-01</leafValues></_>
        <_>
          <internalNodes>
            0 -1 19 9.3267094343900681e-03</internalNodes>
          <leafValues>
            2.9705479741096497e-01 -9.4734358787536621e-01</leafValues></_></weakClassifiers></_>
    <!-- stage 7 -->
    <_>
      <maxWeakCount>4</maxWeakCount>
      <stageThreshold>-1.7068061828613281e+00</stageThreshold>
      <weakClassifiers>
        <_>
          <internalNodes>
            0 -1 18 2.6393342763185501e-02</internalNodes>
          <leafValues>
            -8.5661077499389648e-01 8.3333331346511841e-01</leafValues></_>
        <_>
          <internalNodes>
            0 -1 17 -2.9765950515866280e-02</internalNodes>
          <leafValues>
            2.1487060189247131e-01 -7.5918549299240112e-01</leafValues></_>
        <_>
          <internalNodes>
            0 -1 35 -2.8839397430419922e-01</internalNodes>
          <leafValues>
            2.8799092769622803e-01 -9.2000174522399902e-01</leafValues></_>
        <_>
          <internalNodes>
            0 -1 38 3.8777679204940796e-02</internalNodes>
          <leafValues>
            -8.6095231771469116e-01 2.8139346837997437e-01</leafValues></_></weakClassifiers></_>
    <!-- stage 8 -->
    <_>
      <maxWeakCount>5</maxWeakCount>
      <stageThreshold>-1.8025698661804199e+00</stageThreshold>
      <weakClassifiers>
        <_>
          <internalNodes>
            0 -1 10 2.2980567067861557e-02</internalNodes>
          <leafValues>
            -8.6316776275634766e-01 7.2093021869659424e-01</leafValues></_>
        <_>
          <internalNodes>
            0 -1 11 -2.6865746825933456e-02</internalNodes>
          <leafValues>
            3.6330395936965942e-01 -7.8447550535202026e-01</leafValues></_>
        <_>
          <internalNodes>
            0 -1 7 5.5021673440933228e-02</internalNodes>
          <leafValues>
            -7.4527829885482788e-01 3.6489963531494141e-01</leafValues></_>
        <_>
          <internalNodes>
            0 -1 14 -4.2157199233770370e-02</internalNodes>
          <leafValues>
            2.8475576639175415e-01 -8.7425041198730469e-01</leafValues></_>
        <_>
          <internalNodes>
            0 -1 2 -4.4316804409027100e-01</internalNodes>
          <leafValues>
            3.5442405939102173e-01 -7.9584896564483643e-01</leafValues></_></weakClassifiers></_>
    <!-- stage 9 -->
    <_>
      <maxWeakCount>5</maxWeakCount>
      <stageThreshold>-1.5551824569702148e+00</stageThreshold>
      <weakClassifiers>
        <_>
          <internalNodes>
            0 -1 8 1.2002721428871155e-02</internalNodes>
          <leafValues>
            -8.7712663412094116e-01 7.3076921701431274e-01</leafValues></_>
        <_>
          <internalNodes>
            0 -1 36 -1.8015246838331223e-02</internalNodes>
          <leafValues>
            7.8193122148513794e-01 -6.7930895090103149e-01</leafValues></_>
        <_>
          <internalNodes>
            0 -1 34 1.4179824851453304e-02</internalNodes>
          <leafValues>
            -5.1807677745819092e-01 5.8877092599868774e-01</leafValues></_>
        <_>
          <internalNodes>
            0 -1 1 -5.1133312284946442e-02</internalNodes>
          <leafValues>
            -8.5453665256500244e-01 3.3779788017272949e-01</leafValues></_>
        <_>
          <internalNodes>
            0 -1 37 6.2629033345729113e-04</internalNodes>
          <leafValues>
            2.6701885461807251e-01 -9.4984799623489380e-01</leafValues></_></weakClassifiers></_></stages>
  <features>
    <_>
      <rects>
        <_>
          0 0 2 22 -1.</_>
        <_>
          1 0 1 22 2.</_></rects>
      <tilted>0</tilted></_>
    <_>
      <rects>
        <_>
          0 0 7 22 -1.</_>
        <_>
          0 11 7 11 2.</_></rects>
      <tilted>0</tilted></_>
    <_>
      <rects>
        <_>
          0 0 17 24 -1.</_>
        <_>
          0 8 17 8 3.</_></rects>
      <tilted>0</tilted></_>
    <_>
      <rects>
        <_>
          0 0 18 3 -1.</_>
        <_>
          0 1 18 1 3.</_></rects>
      <tilted>0</tilted></_>
    <_>
      <rects>
        <_>
          0 3 24 15 -1.</_>
        <_>
          8 3 8 15 3.</_></rects>
      <tilted>0</tilted></_>
    <_>
      <rects>
        <_>
          0 4 24 14 -1.</_>
        <_>
          8 4 8 14 3.</_></rects>
      <tilted>0</tilted></_>
    <_>
      <rects>
        <_>
          0 8 24 10 -1.</_>
        <_>
          0 8 12 5 2.</_>
        <_>
          12 13 12 5 2.</_></rects>
      <tilted>0</tilted></_>
    <_>
      <rects>
        <_>
          0 15 18 9 -1.</_>
        <_>
          0 18 18 3 3.</_></rects>
      <tilted>0</tilted></_>
    <_>
      <rects>
        <_>
          1 0 15 3 -1.</_>
        <_>
          1 1 15 1 3.</_></rects>
      <tilted>0</tilted></_>
    <_>
      <rects>
        <_>
          1 0 20 2 -1.</_>
        <_>
          1 1 20 1 2.</_></rects>
      <tilted>0</tilted></_>
    <_>
      <rects>
        <_>
          1 0 22 3 -1.</_>
        <_>
          1 1 22 1 3.</_></rects>
      <tilted>0</tilted></_>
    <_>
      <rects>
        <_>
          1 3 22 6 -1.</_>
        <_>
          1 5 22 2 3.</_></rects>
      <tilted>0</tilted></_>
    <_>
      <rects>
        <_>
          1 5 21 1 -1.</_>
        <_>
          8 5 7 1 3.</_></rects>
      <tilted>0</tilted></_>
    <_>
      <rects>
        <_>
          1 6 8 9 -1.</_>
        <_>
          5 6 4 9 2.</_></rects>
      <tilted>0</tilted></_>
    <_>
      <rects>
        <_>
          2 0 6 23 -1.</_>
        <_>
          5 0 3 23 2.</_></rects>
      <tilted>0</tilted></_>
    <_>
      <rects>
        <_>
          2 3 18 5 -1.</_>
        <_>
          8 3 6 5 3.</_></rects>
      <tilted>0</tilted></_>
    <_>
      <rects>
        <_>
          2 3 17 6 -1.</_>
        <_>
          2 5 17 2 3.</_></rects>
      <tilted>0</tilted></_>
    <_>
      <rects>
        <_>
          2 7 10 2 -1.</_>
        <_>
          7 7 5 2 2.</_></rects>
      <tilted>0</tilted></_>
    <_>
      <rects>
        <_>
          3 0 21 2 -1.</_>
        <_>
          3 1 21 1 2.</_></rects>
      <tilted>0</tilted></_>
    <_>
      <rects>
        <_>
          3 10 16 6 -1.</_>
        <_>
          3 10 8 3 2.</_>
        <_>
          11 13 8 3 2.</_></rects>
      <tilted>0</tilted></_>
    <_>
      <rects>
        <_>
          4 1 12 8 -1.</_>
        <_>
          4 5 12 4 2.</_></rects>
      <tilted>0</tilted></_>
    <_>
      <rects>
        <_>
          4 2 15 21 -1.</_>
        <_>
          4 9 15 7 3.</_></rects>
      <tilted>0</tilted></_>
    <_>
      <rects>
        <_>
          4 13 18 9 -1.</_>
        <_>
          10 13 6 9 3.</_></rects>
      <tilted>0</tilted></_>
    <_>
      <rects>
        <_>
          5 15 13 6 -1.</_>
        <_>
          5 18 13 3 2.</_></rects>
      <tilted>0</tilted></_>
    <_>
      <rects>
        <_>
          6 0 12 24 -1.</_>
        <_>
          6 8 12 8 3.</_></rects>
      <tilted>0</tilted></_>
    <_>
      <rects>
        <_>
          6 0 13 24 -1.</_>
        <_>
          6 8 13 8 3.</_></rects>
      <tilted>0</tilted></_>
    <_>
      <rects>
        <_>
          6 0 15 24 -1.</_>
        <_>
          6 8 15 8 3.</_></rects>
      <tilted>0</tilted></_>
    <_>
      <rects>
        <_>
          7 0 2 24 -1.</_>
        <_>
          7 8 2 8 3.</_></rects>
      <tilted>0</tilted></_>
    <_>
      <rects>
        <_>
          7 0 13 24 -1.</_>
        <_>
          7 8 13 8 3.</_></rects>
      <tilted>0</tilted></_>
    <_>
      <rects>
        <_>
          7 11 11 12 -1.</_>
        <_>
          7 17 11 6 2.</_></rects>
      <tilted>0</tilted></_>
    <_>
      <rects>
        <_>
          8 0 16 3 -1.</_>
        <_>
          8 1 16 1 3.</_></rects>
      <tilted>0</tilted></_>
    <_>
      <rects>
        <_>
          8 1 12 6 -1.</_>
        <_>
          8 4 12 3 2.</_></rects>
      <tilted>0</tilted></_>
    <_>
      <rects>
        <_>
          8 15 9 9 -1.</_>
        <_>
          8 18 9 3 3.</_></rects>
      <tilted>0</tilted></_>
    <_>
      <rects>
        <_>
          9 2 7 4 -1.</_>
        <_>
          9 4 7 2 2.</_></rects>
      <tilted>0</tilted></_>
    <_>
      <rects>
        <_>
          9 16 2 6 -1.</_>
        <_>
          9 19 2 3 2.</_></rects>
      <tilted>0</tilted></_>
    <_>
      <rects>
        <_>
          10 0 8 24 -1.</_>
        <_>
          10 8 8 8 3.</_></rects>
      <tilted>0</tilted></_>
    <_>
      <rects>
        <_>
          10 2 4 6 -1.</_>
        <_>
          10 4 4 2 3.</_></rects>
      <tilted>0</tilted></_>
    <_>
      <rects>
        <_>
          11 0 4 1 -1.</_>
        <_>
          13 0 2 1 2.</_></rects>
      <tilted>0</tilted></_>
    <_>
      <rects>
        <_>
          12 3 10 5 -1.</_>
        <_>
          17 3 5 5 2.</_></rects>
      <tilted>0</tilted></_>
    <_>
      <rects>
        <_>
          14 7 9 12 -1.</_>
        <_>
          14 11 9 4 3.</_></rects>
      <tilted>0</tilted></_>
    <_>
      <rects>
        <_>
          14 10 8 1 -1.</_>
        <_>
          18 10 4 1 2.</_></rects>
      <tilted>0</tilted></_></features></cascade>
</opencv_storage>
