<?xml version="1.0"?>
<opencv_storage>
<stage3>
  <maxWeakCount>6</maxWeakCount>
  <stageThreshold>-1.8313052654266357e+00</stageThreshold>
  <weakClassifiers>
    <_>
      <internalNodes>
        0 -1 71439 -5.4402315616607666e-01</internalNodes>
      <leafValues>
        1.2345679104328156e-02 -9.4092828035354614e-01</leafValues></_>
    <_>
      <internalNodes>
        0 -1 74 2.1266523748636246e-02</internalNodes>
      <leafValues>
        -6.5927994251251221e-01 9.1680604219436646e-01</leafValues></_>
    <_>
      <internalNodes>
        0 -1 69512 9.2318378388881683e-02</internalNodes>
      <leafValues>
        -5.3647726774215698e-01 7.5888323783874512e-01</leafValues></_>
    <_>
      <internalNodes>
        0 -1 58325 -7.4819594621658325e-02</internalNodes>
      <leafValues>
        4.9554216861724854e-01 -7.8245157003402710e-01</leafValues></_>
    <_>
      <internalNodes>
        0 -1 80878 -8.3701357245445251e-02</internalNodes>
      <leafValues>
        5.5557090044021606e-01 -5.7550221681594849e-01</leafValues></_>
    <_>
      <internalNodes>
        0 -1 137499 9.6258297562599182e-03</internalNodes>
      <leafValues>
        -6.3147437572479248e-01 5.3226089477539063e-01</leafValues></_></weakClassifiers></stage3>
</opencv_storage>
