<?xml version="1.0"?>
<opencv_storage>
<stage8>
  <maxWeakCount>5</maxWeakCount>
  <stageThreshold>-1.8025698661804199e+00</stageThreshold>
  <weakClassifiers>
    <_>
      <internalNodes>
        0 -1 14377 2.2980567067861557e-02</internalNodes>
      <leafValues>
        -8.6316776275634766e-01 7.2093021869659424e-01</leafValues></_>
    <_>
      <internalNodes>
        0 -1 17144 -2.6865746825933456e-02</internalNodes>
      <leafValues>
        3.6330395936965942e-01 -7.8447550535202026e-01</leafValues></_>
    <_>
      <internalNodes>
        0 -1 11836 5.5021673440933228e-02</internalNodes>
      <leafValues>
        -7.4527829885482788e-01 3.6489963531494141e-01</leafValues></_>
    <_>
      <internalNodes>
        0 -1 26040 -4.2157199233770370e-02</internalNodes>
      <leafValues>
        2.8475576639175415e-01 -8.7425041198730469e-01</leafValues></_>
    <_>
      <internalNodes>
        0 -1 959 -4.4316804409027100e-01</internalNodes>
      <leafValues>
        3.5442405939102173e-01 -7.9584896564483643e-01</leafValues></_></weakClassifiers></stage8>
</opencv_storage>
